digraph Tree {
node [shape=box, style="filled", color="black"] ;
0 [label="node #0\npetal length (cm) <= 2.45\ngini = 0.667\nsamples = 120\nvalue = [39, 40, 41]", fillcolor="#8139e503"] ;
1 [label="node #1\ngini = 0.0\nsamples = 39\nvalue = [39, 0, 0]", fillcolor="#e58139ff"] ;
0 -> 1 [labeldistance=2.5, labelangle=45, headlabel="True"] ;
2 [label="node #2\npetal width (cm) <= 1.75\ngini = 0.5\nsamples = 81\nvalue = [0, 40, 41]", fillcolor="#8139e506"] ;
0 -> 2 [labeldistance=2.5, labelangle=-45, headlabel="False"] ;
3 [label="node #3\npetal length (cm) <= 5.35\ngini = 0.169\nsamples = 43\nvalue = [0, 39, 4]", fillcolor="#39e581e5"] ;
2 -> 3 ;
4 [label="node #4\npetal width (cm) <= 1.65\ngini = 0.093\nsamples = 41\nvalue = [0, 39, 2]", fillcolor="#39e581f2"] ;
3 -> 4 ;
5 [label="node #5\npetal length (cm) <= 4.95\ngini = 0.05\nsamples = 39\nvalue = [0, 38, 1]", fillcolor="#39e581f8"] ;
4 -> 5 ;
6 [label="node #6\ngini = 0.0\nsamples = 37\nvalue = [0, 37, 0]", fillcolor="#39e581ff"] ;
5 -> 6 ;
7 [label="node #7\npetal width (cm) <= 1.55\ngini = 0.5\nsamples = 2\nvalue = [0, 1, 1]", fillcolor="#39e58100"] ;
5 -> 7 ;
8 [label="node #8\ngini = 0.0\nsamples = 1\nvalue = [0, 0, 1]", fillcolor="#8139e5ff"] ;
7 -> 8 ;
9 [label="node #9\ngini = 0.0\nsamples = 1\nvalue = [0, 1, 0]", fillcolor="#39e581ff"] ;
7 -> 9 ;
10 [label="node #10\nsepal length (cm) <= 5.8\ngini = 0.5\nsamples = 2\nvalue = [0, 1, 1]", fillcolor="#39e58100"] ;
4 -> 10 ;
11 [label="node #11\ngini = 0.0\nsamples = 1\nvalue = [0, 0, 1]", fillcolor="#8139e5ff"] ;
10 -> 11 ;
12 [label="node #12\ngini = 0.0\nsamples = 1\nvalue = [0, 1, 0]", fillcolor="#39e581ff"] ;
10 -> 12 ;
13 [label="node #13\ngini = 0.0\nsamples = 2\nvalue = [0, 0, 2]", fillcolor="#8139e5ff"] ;
3 -> 13 ;
14 [label="node #14\npetal length (cm) <= 4.85\ngini = 0.051\nsamples = 38\nvalue = [0, 1, 37]", fillcolor="#8139e5f8"] ;
2 -> 14 ;
15 [label="node #15\nsepal length (cm) <= 5.95\ngini = 0.5\nsamples = 2\nvalue = [0, 1, 1]", fillcolor="#39e58100"] ;
14 -> 15 ;
16 [label="node #16\ngini = 0.0\nsamples = 1\nvalue = [0, 1, 0]", fillcolor="#39e581ff"] ;
15 -> 16 ;
17 [label="node #17\ngini = 0.0\nsamples = 1\nvalue = [0, 0, 1]", fillcolor="#8139e5ff"] ;
15 -> 17 ;
18 [label="node #18\ngini = 0.0\nsamples = 36\nvalue = [0, 0, 36]", fillcolor="#8139e5ff"] ;
14 -> 18 ;
}